<?xml version="1.0"?>
<opencv_storage>
<opencv_ml_svm>
  <format>3</format>
  <svmType>C_SVC</svmType>
  <kernel>
    <type>LINEAR</type></kernel>
  <C>1.</C>
  <term_criteria><epsilon>1.0000000000000001e-05</epsilon>
    <iterations>100</iterations></term_criteria>
  <var_count>2</var_count>
  <class_count>2</class_count>
  <class_labels type_id="opencv-matrix">
    <rows>2</rows>
    <cols>1</cols>
    <dt>i</dt>
    <data>
      2 3</data></class_labels>
  <sv_total>1</sv_total>
  <support_vectors>
    <_>
      6.93815993e-03 1.23680243e-02</_></support_vectors>
  <uncompressed_sv_total>2</uncompressed_sv_total>
  <uncompressed_support_vectors>
    <_>
      499. 1023.</_>
    <_>
      430. 900.</_></uncompressed_support_vectors>
  <decision_functions>
    <_>
      <sv_count>1</sv_count>
      <rho>1.5114630467571681e+01</rho>
      <alpha>
        1.</alpha>
      <index>
        0</index></_></decision_functions></opencv_ml_svm>
</opencv_storage>
