<?xml version="1.0"?>
<opencv_storage>
<opencv_ml_svm>
  <format>3</format>
  <svmType>C_SVC</svmType>
  <kernel>
    <type>LINEAR</type></kernel>
  <C>1.</C>
  <term_criteria><epsilon>1.0000000000000001e-05</epsilon>
    <iterations>100</iterations></term_criteria>
  <var_count>3</var_count>
  <class_count>4</class_count>
  <class_labels type_id="opencv-matrix">
    <rows>4</rows>
    <cols>1</cols>
    <dt>i</dt>
    <data>
      1 2 3 4</data></class_labels>
  <sv_total>6</sv_total>
  <support_vectors>
    <_>
      8.44152179e-04 4.42155637e-03 6.59153145e-03</_>
    <_>
      -1.55399798e-03 3.96895548e-03 6.11259555e-03</_>
    <_>
      -1.43758589e-02 -3.64373531e-03 4.37702518e-03</_>
    <_>
      -2.49655880e-02 1.50717644e-03 4.52327402e-03</_>
    <_>
      -3.71632865e-03 -4.27108957e-03 -4.26441571e-03</_>
    <_>
      -1.77769177e-03 -5.13298204e-03 -5.44210104e-03</_></support_vectors>
  <uncompressed_sv_total>10</uncompressed_sv_total>
  <uncompressed_support_vectors>
    <_>
      4.18228722e+01 1.51407928e+02 2.22344254e+02</_>
    <_>
      4.23560905e+01 1.52221603e+02 2.21399307e+02</_>
    <_>
      3.99325294e+01 1.50883331e+02 2.22123566e+02</_>
    <_>
      1.47049427e+01 1.19605751e+01 1.45936785e+01</_>
    <_>
      1.51918392e+01 1.21957474e+01 1.49031038e+01</_>
    <_>
      1.03167130e+02 8.67264366e+00 5.59770107e-01</_>
    <_>
      1.03012299e+02 8.69252872e+00 7.20919549e-01</_>
    <_>
      9.24832153e+01 7.52965498e+00 8.99425268e-01</_>
    <_>
      1.63539993e+02 1.82759537e+02 1.85150803e+02</_>
    <_>
      1.62678619e+02 1.82466660e+02 1.84832184e+02</_></uncompressed_support_vectors>
  <decision_functions>
    <_>
      <sv_count>1</sv_count>
      <rho>1.1654525951906665e+00</rho>
      <alpha>
        1.</alpha>
      <index>
        0</index></_>
    <_>
      <sv_count>1</sv_count>
      <rho>8.8897214563545490e-01</rho>
      <alpha>
        1.</alpha>
      <index>
        1</index></_>
    <_>
      <sv_count>1</sv_count>
      <rho>-1.1938123368526319e+00</rho>
      <alpha>
        1.</alpha>
      <index>
        2</index></_>
    <_>
      <sv_count>1</sv_count>
      <rho>-1.2934812352687763e+00</rho>
      <alpha>
        1.</alpha>
      <index>
        3</index></_>
    <_>
      <sv_count>1</sv_count>
      <rho>-1.1725193506110827e+00</rho>
      <alpha>
        1.</alpha>
      <index>
        4</index></_>
    <_>
      <sv_count>1</sv_count>
      <rho>-1.2326821661009384e+00</rho>
      <alpha>
        1.</alpha>
      <index>
        5</index></_></decision_functions></opencv_ml_svm>
</opencv_storage>
