<?xml version="1.0"?>
<opencv_storage>
<opencv_ml_svm>
  <format>3</format>
  <svmType>C_SVC</svmType>
  <kernel>
    <type>LINEAR</type></kernel>
  <C>1.</C>
  <term_criteria><epsilon>1.0000000000000001e-05</epsilon>
    <iterations>100</iterations></term_criteria>
  <var_count>3</var_count>
  <class_count>11</class_count>
  <class_labels type_id="opencv-matrix">
    <rows>11</rows>
    <cols>1</cols>
    <dt>i</dt>
    <data>
      1 2 3 4 5 6 7 8 9 10 11</data></class_labels>
  <sv_total>55</sv_total>
  <support_vectors>
    <_>
      -1.30073866e-03 4.99163801e-03 8.43052194e-03</_>
    <_>
      1.01442472e-03 5.37840510e-03 8.90532415e-03</_>
    <_>
      -1.70848574e-02 -5.85423317e-03 4.72846208e-03</_>
    <_>
      -1.50543395e-02 -3.85883753e-03 5.86970197e-03</_>
    <_>
      -1.13271317e-02 2.49868538e-03 1.50283789e-02</_>
    <_>
      -2.22800905e-03 5.74770337e-03 1.21911336e-02</_>
    <_>
      -5.71064465e-03 4.52836649e-03 1.15380380e-02</_>
    <_>
      -5.61348209e-03 3.99497524e-03 1.21095022e-02</_>
    <_>
      -1.13320500e-02 2.53316574e-03 1.50189623e-02</_>
    <_>
      1.11300708e-03 5.24463458e-03 8.57023709e-03</_>
    <_>
      4.23904993e-02 -3.71002592e-03 -9.31270421e-03</_>
    <_>
      -3.13214771e-03 -6.07921975e-03 -6.48562377e-03</_>
    <_>
      -3.89605062e-03 -6.43393304e-03 -6.42482610e-03</_>
    <_>
      -4.14264807e-03 -1.12446956e-02 -1.13103716e-02</_>
    <_>
      2.19887006e-03 -2.38874704e-02 -2.47505866e-02</_>
    <_>
      -1.25164762e-02 -2.37777233e-02 -2.10404154e-02</_>
    <_>
      -7.80653534e-03 -2.05404945e-02 -1.61009505e-02</_>
    <_>
      -3.90728377e-03 -1.05376961e-02 -1.07700489e-02</_>
    <_>
      4.04165760e-02 6.28639886e-04 -4.55158809e-03</_>
    <_>
      -4.68542799e-03 -5.30062057e-03 -5.43713057e-03</_>
    <_>
      -5.41474577e-03 -5.36632957e-03 -5.10371476e-03</_>
    <_>
      -8.88185017e-03 -8.80254619e-03 -8.18060432e-03</_>
    <_>
      -2.01908797e-02 -1.78593919e-02 -1.59656219e-02</_>
    <_>
      -2.01139711e-02 -1.05078379e-02 -7.44086877e-03</_>
    <_>
      -1.61785800e-02 -1.18607832e-02 -7.70079717e-03</_>
    <_>
      -8.24633054e-03 -8.41942150e-03 -7.99980480e-03</_>
    <_>
      2.12270051e-01 2.65798867e-01 3.10001820e-01</_>
    <_>
      -7.03187510e-02 1.98553782e-02 7.67343491e-02</_>
    <_>
      1.04246698e-02 1.41924080e-02 1.65095013e-02</_>
    <_>
      5.82850026e-03 7.45304301e-03 8.01834371e-03</_>
    <_>
      4.19431226e-03 9.37174726e-03 1.09048579e-02</_>
    <_>
      4.81708394e-03 8.83017667e-03 1.14513962e-02</_>
    <_>
      1.04246698e-02 1.41924070e-02 1.65095013e-02</_>
    <_>
      4.53525502e-03 5.13239158e-03 5.25070541e-03</_>
    <_>
      1.62828509e-02 1.49779692e-02 1.43452371e-02</_>
    <_>
      7.30709964e-03 7.68043846e-03 7.47655425e-03</_>
    <_>
      6.41179271e-03 1.03119556e-02 1.08273188e-02</_>
    <_>
      7.17910659e-03 9.62045789e-03 1.13688894e-02</_>
    <_>
      1.62828509e-02 1.49779683e-02 1.43452371e-02</_>
    <_>
      5.22024836e-03 5.19463932e-03 4.93541593e-03</_>
    <_>
      1.53761739e-02 1.73640028e-02 1.66494306e-02</_>
    <_>
      -6.67913759e-04 2.92640310e-02 3.38313468e-02</_>
    <_>
      3.96482833e-03 2.52410844e-02 4.08908017e-02</_>
    <_>
      0. 0. 0.</_>
    <_>
      8.37084372e-03 8.34969897e-03 7.75714591e-03</_>
    <_>
      -6.64148107e-02 -1.40682398e-03 1.46437995e-02</_>
    <_>
      -5.49551174e-02 -2.94438954e-02 -1.81893446e-03</_>
    <_>
      -1.33769894e-02 -1.58493631e-02 -1.57411862e-02</_>
    <_>
      1.77804194e-02 1.61120221e-02 1.44581487e-02</_>
    <_>
      1.67727560e-01 -1.98346570e-01 3.30318883e-02</_>
    <_>
      -8.02056747e-04 -2.50300039e-02 -2.95253787e-02</_>
    <_>
      1.81565173e-02 1.00906976e-02 7.39025651e-03</_>
    <_>
      -4.36779857e-03 -2.19458621e-02 -3.45840342e-02</_>
    <_>
      1.47418985e-02 1.11276116e-02 7.47930864e-03</_>
    <_>
      7.80214695e-03 8.00346024e-03 7.59331882e-03</_></support_vectors>
  <uncompressed_sv_total>29</uncompressed_sv_total>
  <uncompressed_support_vectors>
    <_>
      3.74620667e+01 1.11293877e+02 1.77772491e+02</_>
    <_>
      3.77025528e+01 1.11503181e+02 1.77617188e+02</_>
    <_>
      3.87473221e+01 1.11550652e+02 1.77728424e+02</_>
    <_>
      3.94229584e+01 1.12878059e+02 1.78178467e+02</_>
    <_>
      6.53794098e+01 9.34892464e+00 5.11697578e+00</_>
    <_>
      6.88907776e+01 9.34108543e+00 4.32514572e+00</_>
    <_>
      6.45330582e+01 9.41294289e+00 4.54585838e+00</_>
    <_>
      1.81462421e+01 1.17415733e+01 1.34993467e+01</_>
    <_>
      1.76841736e+01 1.11628780e+01 1.29747410e+01</_>
    <_>
      1.98514061e+01 1.33234911e+01 1.43619022e+01</_>
    <_>
      1.38525131e+02 1.47320450e+02 1.51895996e+02</_>
    <_>
      1.37464508e+02 1.46472610e+02 1.51044159e+02</_>
    <_>
      1.37886856e+02 1.46803497e+02 1.51217758e+02</_>
    <_>
      1.50413208e+02 1.43266525e+02 1.37548553e+02</_>
    <_>
      1.48521378e+02 1.40842957e+02 1.35640884e+02</_>
    <_>
      9.81490326e+01 9.39527054e+01 9.08119507e+01</_>
    <_>
      9.94042358e+01 9.21660156e+01 8.76338272e+01</_>
    <_>
      1.01141884e+02 9.63202667e+01 9.32221909e+01</_>
    <_>
      1.01681564e+02 9.77568130e+01 9.43748779e+01</_>
    <_>
      6.16777267e+01 4.95622330e+01 4.67832947e+01</_>
    <_>
      6.09930305e+01 4.97143974e+01 4.68939972e+01</_>
    <_>
      1.00071686e+02 6.29223061e+01 5.38259735e+01</_>
    <_>
      9.03830643e+01 5.01702805e+01 4.04540558e+01</_>
    <_>
      9.59934692e+01 7.04522247e+01 5.24572754e+01</_>
    <_>
      8.99299698e+01 6.46992416e+01 4.77184029e+01</_>
    <_>
      9.51792526e+01 6.87078629e+01 5.28624687e+01</_>
    <_>
      1.01141884e+02 9.63202667e+01 9.32221909e+01</_>
    <_>
      1.01681564e+02 9.77568130e+01 9.43748779e+01</_>
    <_>
      1.56798191e+01 8.65307903e+00 1.00475569e+01</_></uncompressed_support_vectors>
  <decision_functions>
    <_>
      <sv_count>1</sv_count>
      <rho>1.0047636939848967e+00</rho>
      <alpha>
        1.</alpha>
      <index>
        0</index></_>
    <_>
      <sv_count>1</sv_count>
      <rho>1.2152178056213052e+00</rho>
      <alpha>
        1.</alpha>
      <index>
        1</index></_>
    <_>
      <sv_count>1</sv_count>
      <rho>-1.4918398347956252e+00</rho>
      <alpha>
        1.</alpha>
      <index>
        2</index></_>
    <_>
      <sv_count>1</sv_count>
      <rho>-9.8321012299377331e-01</rho>
      <alpha>
        1.</alpha>
      <index>
        3</index></_>
    <_>
      <sv_count>1</sv_count>
      <rho>1.5086898497507288e+00</rho>
      <alpha>
        1.</alpha>
      <index>
        4</index></_>
    <_>
      <sv_count>1</sv_count>
      <rho>1.7210854163940221e+00</rho>
      <alpha>
        1.</alpha>
      <index>
        5</index></_>
    <_>
      <sv_count>1</sv_count>
      <rho>1.3345075078521740e+00</rho>
      <alpha>
        1.</alpha>
      <index>
        6</index></_>
    <_>
      <sv_count>1</sv_count>
      <rho>1.3813908663287995e+00</rho>
      <alpha>
        1.</alpha>
      <index>
        7</index></_>
    <_>
      <sv_count>1</sv_count>
      <rho>1.5127214809137293e+00</rho>
      <alpha>
        1.</alpha>
      <index>
        8</index></_>
    <_>
      <sv_count>1</sv_count>
      <rho>1.1489438400546816e+00</rho>
      <alpha>
        1.</alpha>
      <index>
        9</index></_>
    <_>
      <sv_count>1</sv_count>
      <rho>1.6583323380654726e+00</rho>
      <alpha>
        1.</alpha>
      <index>
        10</index></_>
    <_>
      <sv_count>1</sv_count>
      <rho>-1.3026603672259032e+00</rho>
      <alpha>
        1.</alpha>
      <index>
        11</index></_>
    <_>
      <sv_count>1</sv_count>
      <rho>-1.3562901743790130e+00</rho>
      <alpha>
        1.</alpha>
      <index>
        12</index></_>
    <_>
      <sv_count>1</sv_count>
      <rho>-1.4393468554811424e+00</rho>
      <alpha>
        1.</alpha>
      <index>
        13</index></_>
    <_>
      <sv_count>1</sv_count>
      <rho>-1.2062094421761052e+00</rho>
      <alpha>
        1.</alpha>
      <index>
        14</index></_>
    <_>
      <sv_count>1</sv_count>
      <rho>-2.1753822731278341e+00</rho>
      <alpha>
        1.</alpha>
      <index>
        15</index></_>
    <_>
      <sv_count>1</sv_count>
      <rho>-1.7993076199490099e+00</rho>
      <alpha>
        1.</alpha>
      <index>
        16</index></_>
    <_>
      <sv_count>1</sv_count>
      <rho>-1.4141913634999279e+00</rho>
      <alpha>
        1.</alpha>
      <index>
        17</index></_>
    <_>
      <sv_count>1</sv_count>
      <rho>1.5934319749436070e+00</rho>
      <alpha>
        1.</alpha>
      <index>
        18</index></_>
    <_>
      <sv_count>1</sv_count>
      <rho>-1.2399803326770438e+00</rho>
      <alpha>
        1.</alpha>
      <index>
        19</index></_>
    <_>
      <sv_count>1</sv_count>
      <rho>-1.2522876204411197e+00</rho>
      <alpha>
        1.</alpha>
      <index>
        20</index></_>
    <_>
      <sv_count>1</sv_count>
      <rho>-1.4110869208912042e+00</rho>
      <alpha>
        1.</alpha>
      <index>
        21</index></_>
    <_>
      <sv_count>1</sv_count>
      <rho>-1.8680635373302246e+00</rho>
      <alpha>
        1.</alpha>
      <index>
        22</index></_>
    <_>
      <sv_count>1</sv_count>
      <rho>-1.6461567201185496e+00</rho>
      <alpha>
        1.</alpha>
      <index>
        23</index></_>
    <_>
      <sv_count>1</sv_count>
      <rho>-1.5897926421799098e+00</rho>
      <alpha>
        1.</alpha>
      <index>
        24</index></_>
    <_>
      <sv_count>1</sv_count>
      <rho>-1.3907697850087581e+00</rho>
      <alpha>
        1.</alpha>
      <index>
        25</index></_>
    <_>
      <sv_count>1</sv_count>
      <rho>9.7430925209511230e+00</rho>
      <alpha>
        1.</alpha>
      <index>
        26</index></_>
    <_>
      <sv_count>1</sv_count>
      <rho>3.8224239633357335e+00</rho>
      <alpha>
        1.</alpha>
      <index>
        27</index></_>
    <_>
      <sv_count>1</sv_count>
      <rho>5.0054842403725921e+00</rho>
      <alpha>
        1.</alpha>
      <index>
        28</index></_>
    <_>
      <sv_count>1</sv_count>
      <rho>2.1040025955961985e+00</rho>
      <alpha>
        1.</alpha>
      <index>
        29</index></_>
    <_>
      <sv_count>1</sv_count>
      <rho>2.5963884071159820e+00</rho>
      <alpha>
        1.</alpha>
      <index>
        30</index></_>
    <_>
      <sv_count>1</sv_count>
      <rho>2.6852234842479872e+00</rho>
      <alpha>
        1.</alpha>
      <index>
        31</index></_>
    <_>
      <sv_count>1</sv_count>
      <rho>5.0054841090077229e+00</rho>
      <alpha>
        1.</alpha>
      <index>
        32</index></_>
    <_>
      <sv_count>1</sv_count>
      <rho>1.1682797218315868e+00</rho>
      <alpha>
        1.</alpha>
      <index>
        33</index></_>
    <_>
      <sv_count>1</sv_count>
      <rho>5.4736942595693048e+00</rho>
      <alpha>
        1.</alpha>
      <index>
        34</index></_>
    <_>
      <sv_count>1</sv_count>
      <rho>2.1811227348935116e+00</rho>
      <alpha>
        1.</alpha>
      <index>
        35</index></_>
    <_>
      <sv_count>1</sv_count>
      <rho>2.8732818538072671e+00</rho>
      <alpha>
        1.</alpha>
      <index>
        36</index></_>
    <_>
      <sv_count>1</sv_count>
      <rho>2.9633110246058796e+00</rho>
      <alpha>
        1.</alpha>
      <index>
        37</index></_>
    <_>
      <sv_count>1</sv_count>
      <rho>5.4736939979118064e+00</rho>
      <alpha>
        1.</alpha>
      <index>
        38</index></_>
    <_>
      <sv_count>1</sv_count>
      <rho>1.1763910415868430e+00</rho>
      <alpha>
        1.</alpha>
      <index>
        39</index></_>
    <_>
      <sv_count>1</sv_count>
      <rho>3.5878811759812601e+00</rho>
      <alpha>
        1.</alpha>
      <index>
        40</index></_>
    <_>
      <sv_count>1</sv_count>
      <rho>4.5955260693921183e+00</rho>
      <alpha>
        1.</alpha>
      <index>
        41</index></_>
    <_>
      <sv_count>1</sv_count>
      <rho>5.3039089478738664e+00</rho>
      <alpha>
        1.</alpha>
      <index>
        42</index></_>
    <_>
      <sv_count>1</sv_count>
      <rho>-1.0000000000033538e+00</rho>
      <alpha>
        1.</alpha>
      <index>
        43</index></_>
    <_>
      <sv_count>1</sv_count>
      <rho>1.2814442730055871e+00</rho>
      <alpha>
        1.</alpha>
      <index>
        44</index></_>
    <_>
      <sv_count>1</sv_count>
      <rho>-4.4809528543605133e+00</rho>
      <alpha>
        1.</alpha>
      <index>
        45</index></_>
    <_>
      <sv_count>1</sv_count>
      <rho>-5.9339063702071462e+00</rho>
      <alpha>
        1.</alpha>
      <index>
        46</index></_>
    <_>
      <sv_count>1</sv_count>
      <rho>-3.3470166397656902e+00</rho>
      <alpha>
        1.</alpha>
      <index>
        47</index></_>
    <_>
      <sv_count>1</sv_count>
      <rho>1.5634814367035004e+00</rho>
      <alpha>
        1.</alpha>
      <index>
        48</index></_>
    <_>
      <sv_count>1</sv_count>
      <rho>5.0823625615875372e+00</rho>
      <alpha>
        1.</alpha>
      <index>
        49</index></_>
    <_>
      <sv_count>1</sv_count>
      <rho>-4.2444399298908415e+00</rho>
      <alpha>
        1.</alpha>
      <index>
        50</index></_>
    <_>
      <sv_count>1</sv_count>
      <rho>1.4462605731701252e+00</rho>
      <alpha>
        1.</alpha>
      <index>
        51</index></_>
    <_>
      <sv_count>1</sv_count>
      <rho>-4.7795991748204250e+00</rho>
      <alpha>
        1.</alpha>
      <index>
        52</index></_>
    <_>
      <sv_count>1</sv_count>
      <rho>1.4025871935407745e+00</rho>
      <alpha>
        1.</alpha>
      <index>
        53</index></_>
    <_>
      <sv_count>1</sv_count>
      <rho>1.2678851650703942e+00</rho>
      <alpha>
        1.</alpha>
      <index>
        54</index></_></decision_functions></opencv_ml_svm>
</opencv_storage>
