<?xml version="1.0"?>
<opencv_storage>
<opencv_ml_svm>
  <format>3</format>
  <svmType>C_SVC</svmType>
  <kernel>
    <type>LINEAR</type></kernel>
  <C>1.</C>
  <term_criteria><epsilon>1.0000000000000001e-05</epsilon>
    <iterations>100</iterations></term_criteria>
  <var_count>3</var_count>
  <class_count>8</class_count>
  <class_labels type_id="opencv-matrix">
    <rows>8</rows>
    <cols>1</cols>
    <dt>i</dt>
    <data>
      1 2 3 4 5 6 7 8</data></class_labels>
  <sv_total>28</sv_total>
  <support_vectors>
    <_>
      -8.52389485e-02 -5.16899005e-02 7.52237765e-03</_>
    <_>
      -8.35167244e-02 8.89668427e-03 3.53563428e-02</_>
    <_>
      -1.98321324e-02 -2.57054623e-02 -2.44970229e-02</_>
    <_>
      2.41406057e-02 2.65567619e-02 2.91703548e-02</_>
    <_>
      -5.60812745e-03 -7.48199224e-03 -7.57458014e-03</_>
    <_>
      3.91804427e-02 3.95489447e-02 3.52676585e-02</_>
    <_>
      -4.08811914e-03 -7.22505711e-03 -8.12531542e-03</_>
    <_>
      -1.61165938e-01 1.83474854e-01 -1.84146203e-02</_>
    <_>
      8.57350826e-02 -2.63282959e-03 -8.52169096e-02</_>
    <_>
      1.80766303e-02 1.65132098e-02 1.27356825e-02</_>
    <_>
      -5.75099140e-03 -1.00150583e-02 -1.19555416e-02</_>
    <_>
      2.32360419e-02 1.98836289e-02 1.21262558e-02</_>
    <_>
      -2.93021556e-03 -9.02156346e-03 -1.21111479e-02</_>
    <_>
      3.14009599e-02 -3.63222174e-02 -5.18353544e-02</_>
    <_>
      2.53564622e-02 1.48986857e-02 1.25842504e-02</_>
    <_>
      -4.02310956e-03 -9.81574412e-03 -1.07372291e-02</_>
    <_>
      3.31364609e-02 1.65575948e-02 9.97956842e-03</_>
    <_>
      -1.79667387e-03 -8.75443127e-03 -1.07165882e-02</_>
    <_>
      9.68162995e-03 1.14100510e-02 1.14935385e-02</_>
    <_>
      -1.10899778e-02 -1.54647520e-02 -1.61118507e-02</_>
    <_>
      1.15209939e-02 1.32818110e-02 1.23698926e-02</_>
    <_>
      -4.82845027e-03 -1.37321688e-02 -1.73633490e-02</_>
    <_>
      -4.34013270e-03 -5.48643898e-03 -5.61555056e-03</_>
    <_>
      -6.07497059e-02 -8.15138966e-02 -1.49233133e-01</_>
    <_>
      -3.49643757e-03 -5.38306171e-03 -5.96989086e-03</_>
    <_>
      4.69390117e-03 5.89307398e-03 5.83826937e-03</_>
    <_>
      7.46482462e-02 -1.28578814e-02 -6.18554801e-02</_>
    <_>
      -3.74891376e-03 -5.78714302e-03 -6.25788420e-03</_></support_vectors>
  <uncompressed_sv_total>20</uncompressed_sv_total>
  <uncompressed_support_vectors>
    <_>
      3.74881134e+01 3.98410263e+01 4.51771545e+01</_>
    <_>
      2.96512814e+01 3.16550121e+01 3.75048943e+01</_>
    <_>
      6.55342636e+01 5.94568748e+01 5.05930061e+01</_>
    <_>
      7.33184128e+01 7.06881104e+01 6.32573433e+01</_>
    <_>
      6.15552444e+01 5.84717941e+01 5.17999992e+01</_>
    <_>
      5.66792526e+01 5.08773880e+01 4.34452209e+01</_>
    <_>
      5.45459213e+01 5.01850815e+01 4.36717949e+01</_>
    <_>
      5.66377640e+01 3.59426575e+01 3.48251762e+01</_>
    <_>
      7.40461502e+01 5.63687630e+01 5.40289040e+01</_>
    <_>
      7.96275024e+01 5.70093231e+01 5.55347328e+01</_>
    <_>
      6.09100227e+01 4.37188797e+01 4.29603729e+01</_>
    <_>
      7.92713318e+01 9.34326324e+01 9.79659653e+01</_>
    <_>
      6.14662018e+01 7.09202805e+01 7.47953415e+01</_>
    <_>
      7.07878780e+00 6.82330990e+00 1.02293711e+01</_>
    <_>
      1.14945457e+02 1.43179489e+02 1.49794403e+02</_>
    <_>
      1.27386482e+02 1.55115616e+02 1.62327744e+02</_>
    <_>
      1.08051281e+01 1.18233099e+01 1.93832169e+01</_>
    <_>
      1.16083918e+01 1.34424238e+01 2.12638702e+01</_>
    <_>
      1.10188812e+02 1.56281586e+02 1.73663864e+02</_>
    <_>
      9.80820541e+01 1.46930542e+02 1.65610260e+02</_></uncompressed_support_vectors>
  <decision_functions>
    <_>
      <sv_count>1</sv_count>
      <rho>-5.9149847967908782e+00</rho>
      <alpha>
        1.</alpha>
      <index>
        0</index></_>
    <_>
      <sv_count>1</sv_count>
      <rho>-2.1791339142627120e+00</rho>
      <alpha>
        1.</alpha>
      <index>
        1</index></_>
    <_>
      <sv_count>1</sv_count>
      <rho>-3.8743071708330250e+00</rho>
      <alpha>
        1.</alpha>
      <index>
        2</index></_>
    <_>
      <sv_count>1</sv_count>
      <rho>1.6504856231995668e+00</rho>
      <alpha>
        1.</alpha>
      <index>
        3</index></_>
    <_>
      <sv_count>1</sv_count>
      <rho>-1.8505263318312513e+00</rho>
      <alpha>
        1.</alpha>
      <index>
        4</index></_>
    <_>
      <sv_count>1</sv_count>
      <rho>2.7363825580957659e+00</rho>
      <alpha>
        1.</alpha>
      <index>
        5</index></_>
    <_>
      <sv_count>1</sv_count>
      <rho>-1.8081880927985037e+00</rho>
      <alpha>
        1.</alpha>
      <index>
        6</index></_>
    <_>
      <sv_count>1</sv_count>
      <rho>-1.5893954396489405e+00</rho>
      <alpha>
        1.</alpha>
      <index>
        7</index></_>
    <_>
      <sv_count>1</sv_count>
      <rho>-2.9073819087360281e-01</rho>
      <alpha>
        1.</alpha>
      <index>
        8</index></_>
    <_>
      <sv_count>1</sv_count>
      <rho>1.3709134219180350e+00</rho>
      <alpha>
        1.</alpha>
      <index>
        9</index></_>
    <_>
      <sv_count>1</sv_count>
      <rho>-2.8858746598064000e+00</rho>
      <alpha>
        1.</alpha>
      <index>
        10</index></_>
    <_>
      <sv_count>1</sv_count>
      <rho>1.7948683299600032e+00</rho>
      <alpha>
        1.</alpha>
      <index>
        11</index></_>
    <_>
      <sv_count>1</sv_count>
      <rho>-2.6186749187655129e+00</rho>
      <alpha>
        1.</alpha>
      <index>
        12</index></_>
    <_>
      <sv_count>1</sv_count>
      <rho>-3.5229257162915166e+00</rho>
      <alpha>
        1.</alpha>
      <index>
        13</index></_>
    <_>
      <sv_count>1</sv_count>
      <rho>1.4098803796884432e+00</rho>
      <alpha>
        1.</alpha>
      <index>
        14</index></_>
    <_>
      <sv_count>1</sv_count>
      <rho>-2.4762282099163775e+00</rho>
      <alpha>
        1.</alpha>
      <index>
        15</index></_>
    <_>
      <sv_count>1</sv_count>
      <rho>1.8194394012423751e+00</rho>
      <alpha>
        1.</alpha>
      <index>
        16</index></_>
    <_>
      <sv_count>1</sv_count>
      <rho>-2.2372915751706461e+00</rho>
      <alpha>
        1.</alpha>
      <index>
        17</index></_>
    <_>
      <sv_count>1</sv_count>
      <rho>1.2639602003355552e+00</rho>
      <alpha>
        1.</alpha>
      <index>
        18</index></_>
    <_>
      <sv_count>1</sv_count>
      <rho>-4.9024428278586978e+00</rho>
      <alpha>
        1.</alpha>
      <index>
        19</index></_>
    <_>
      <sv_count>1</sv_count>
      <rho>1.5753117454656143e+00</rho>
      <alpha>
        1.</alpha>
      <index>
        20</index></_>
    <_>
      <sv_count>1</sv_count>
      <rho>-4.3668074265067123e+00</rho>
      <alpha>
        1.</alpha>
      <index>
        21</index></_>
    <_>
      <sv_count>1</sv_count>
      <rho>-1.1256021005924977e+00</rho>
      <alpha>
        1.</alpha>
      <index>
        22</index></_>
    <_>
      <sv_count>1</sv_count>
      <rho>-3.5127902788308636e+00</rho>
      <alpha>
        1.</alpha>
      <index>
        23</index></_>
    <_>
      <sv_count>1</sv_count>
      <rho>-1.1225490582116158e+00</rho>
      <alpha>
        1.</alpha>
      <index>
        24</index></_>
    <_>
      <sv_count>1</sv_count>
      <rho>1.2578500323758406e+00</rho>
      <alpha>
        1.</alpha>
      <index>
        25</index></_>
    <_>
      <sv_count>1</sv_count>
      <rho>-3.5261250106860662e+00</rho>
      <alpha>
        1.</alpha>
      <index>
        26</index></_>
    <_>
      <sv_count>1</sv_count>
      <rho>-1.2543789376397458e+00</rho>
      <alpha>
        1.</alpha>
      <index>
        27</index></_></decision_functions></opencv_ml_svm>
</opencv_storage>
