<?xml version="1.0"?>
<opencv_storage>
<opencv_ml_svm>
  <format>3</format>
  <svmType>C_SVC</svmType>
  <kernel>
    <type>LINEAR</type></kernel>
  <C>1.</C>
  <term_criteria><epsilon>1.0000000000000001e-05</epsilon>
    <iterations>100</iterations></term_criteria>
  <var_count>3</var_count>
  <class_count>7</class_count>
  <class_labels type_id="opencv-matrix">
    <rows>7</rows>
    <cols>1</cols>
    <dt>i</dt>
    <data>
      3 4 5 6 7 8 9</data></class_labels>
  <sv_total>21</sv_total>
  <support_vectors>
    <_>
      -3.53845651e-03 -3.63655249e-03 -3.76702333e-03</_>
    <_>
      -3.69888078e-03 -3.58323450e-03 -3.56179453e-03</_>
    <_>
      -3.82693368e-03 -4.01094370e-03 -4.22301982e-03</_>
    <_>
      -6.70183916e-03 -6.79091085e-03 -7.61584099e-03</_>
    <_>
      -7.12680398e-03 -5.42282406e-03 -5.73875383e-03</_>
    <_>
      -5.67259407e-03 -5.25819277e-03 -4.93453396e-03</_>
    <_>
      -1.29874304e-01 -7.22437259e-03 7.72836879e-02</_>
    <_>
      9.56554264e-02 7.05596507e-02 6.23454973e-02</_>
    <_>
      8.76867399e-03 8.78936797e-03 7.90846348e-03</_>
    <_>
      7.43481750e-03 1.57300513e-02 1.63625292e-02</_>
    <_>
      8.33265111e-03 1.53205274e-02 2.12740079e-02</_>
    <_>
      7.91258216e-02 3.04739065e-02 2.01908391e-04</_>
    <_>
      9.43275169e-03 8.34553316e-03 6.75649615e-03</_>
    <_>
      1.06073041e-02 1.57686248e-02 1.43195437e-02</_>
    <_>
      1.27436938e-02 1.56475380e-02 1.88497938e-02</_>
    <_>
      1.09245637e-02 1.14186872e-02 1.02399979e-02</_>
    <_>
      4.08109417e-03 2.32757553e-02 2.55740415e-02</_>
    <_>
      2.38368218e-03 2.10497305e-02 3.63995396e-02</_>
    <_>
      -5.93459681e-02 -2.42466130e-03 1.86830051e-02</_>
    <_>
      -3.74934450e-02 -2.32791584e-02 -1.65444054e-03</_>
    <_>
      9.32479948e-02 -1.67508453e-01 7.10531175e-02</_></support_vectors>
  <uncompressed_sv_total>20</uncompressed_sv_total>
  <uncompressed_support_vectors>
    <_>
      1.77318832e+02 1.82249832e+02 1.88784500e+02</_>
    <_>
      1.77300171e+02 1.82214340e+02 1.88840164e+02</_>
    <_>
      2.66666664e-03 2.66666664e-03 8.33333358e-02</_>
    <_>
      3.79999988e-02 1.56666674e-02 3.07999998e-01</_>
    <_>
      3.41666676e-02 2.76666675e-02 2.99666673e-01</_>
    <_>
      1.55296173e+02 1.41758667e+02 1.32558670e+02</_>
    <_>
      1.26981331e+02 1.02339996e+02 1.06207497e+02</_>
    <_>
      1.51251999e+02 1.27099503e+02 1.31416672e+02</_>
    <_>
      9.63659973e+01 1.01089165e+02 1.15845665e+02</_>
    <_>
      1.26029335e+02 9.58831635e+01 1.01760666e+02</_>
    <_>
      1.34812668e+02 1.24960167e+02 1.17542168e+02</_>
    <_>
      1.35319504e+02 1.24837502e+02 1.18401169e+02</_>
    <_>
      1.39675659e+02 1.31028168e+02 1.27763000e+02</_>
    <_>
      1.88719498e+02 1.82798004e+02 1.81996674e+02</_>
    <_>
      1.88693832e+02 1.82958832e+02 1.82087006e+02</_>
    <_>
      1.57728668e+02 1.65315674e+02 1.74183670e+02</_>
    <_>
      1.57983994e+02 1.65494171e+02 1.73602493e+02</_>
    <_>
      8.99761658e+01 9.11491699e+01 1.02512001e+02</_>
    <_>
      1.66707993e+02 1.74320663e+02 1.81940506e+02</_>
    <_>
      1.66681671e+02 1.74381668e+02 1.81919327e+02</_></uncompressed_support_vectors>
  <decision_functions>
    <_>
      <sv_count>1</sv_count>
      <rho>-1.0011006990651814e+00</rho>
      <alpha>
        1.</alpha>
      <index>
        0</index></_>
    <_>
      <sv_count>1</sv_count>
      <rho>-1.0012937274895846e+00</rho>
      <alpha>
        1.</alpha>
      <index>
        1</index></_>
    <_>
      <sv_count>1</sv_count>
      <rho>-1.0014152044211249e+00</rho>
      <alpha>
        1.</alpha>
      <index>
        2</index></_>
    <_>
      <sv_count>1</sv_count>
      <rho>-1.0027067399754852e+00</rho>
      <alpha>
        1.</alpha>
      <index>
        3</index></_>
    <_>
      <sv_count>1</sv_count>
      <rho>-1.0021233108213528e+00</rho>
      <alpha>
        1.</alpha>
      <index>
        4</index></_>
    <_>
      <sv_count>1</sv_count>
      <rho>-1.0018180065698541e+00</rho>
      <alpha>
        1.</alpha>
      <index>
        5</index></_>
    <_>
      <sv_count>1</sv_count>
      <rho>-1.0756384958453200e+01</rho>
      <alpha>
        1.</alpha>
      <index>
        6</index></_>
    <_>
      <sv_count>1</sv_count>
      <rho>4.0590118938701409e+01</rho>
      <alpha>
        1.</alpha>
      <index>
        7</index></_>
    <_>
      <sv_count>1</sv_count>
      <rho>3.6496728540836125e+00</rho>
      <alpha>
        1.</alpha>
      <index>
        8</index></_>
    <_>
      <sv_count>1</sv_count>
      <rho>6.2741228086018195e+00</rho>
      <alpha>
        1.</alpha>
      <index>
        9</index></_>
    <_>
      <sv_count>1</sv_count>
      <rho>7.2859007218112630e+00</rho>
      <alpha>
        1.</alpha>
      <index>
        10</index></_>
    <_>
      <sv_count>1</sv_count>
      <rho>1.9539886322084627e+01</rho>
      <alpha>
        1.</alpha>
      <index>
        11</index></_>
    <_>
      <sv_count>1</sv_count>
      <rho>3.5353506027832657e+00</rho>
      <alpha>
        1.</alpha>
      <index>
        12</index></_>
    <_>
      <sv_count>1</sv_count>
      <rho>6.4903868864828480e+00</rho>
      <alpha>
        1.</alpha>
      <index>
        13</index></_>
    <_>
      <sv_count>1</sv_count>
      <rho>7.6959228202913206e+00</rho>
      <alpha>
        1.</alpha>
      <index>
        14</index></_>
    <_>
      <sv_count>1</sv_count>
      <rho>4.3933213797707804e+00</rho>
      <alpha>
        1.</alpha>
      <index>
        15</index></_>
    <_>
      <sv_count>1</sv_count>
      <rho>7.9364653628910595e+00</rho>
      <alpha>
        1.</alpha>
      <index>
        16</index></_>
    <_>
      <sv_count>1</sv_count>
      <rho>9.1792362459672106e+00</rho>
      <alpha>
        1.</alpha>
      <index>
        17</index></_>
    <_>
      <sv_count>1</sv_count>
      <rho>-4.7996971188430422e+00</rho>
      <alpha>
        1.</alpha>
      <index>
        18</index></_>
    <_>
      <sv_count>1</sv_count>
      <rho>-7.1580257459830969e+00</rho>
      <alpha>
        1.</alpha>
      <index>
        19</index></_>
    <_>
      <sv_count>1</sv_count>
      <rho>1.1447481319299226e+00</rho>
      <alpha>
        1.</alpha>
      <index>
        20</index></_></decision_functions></opencv_ml_svm>
</opencv_storage>
