<?xml version="1.0"?>
<opencv_storage>
<opencv_ml_nbayes>
  <format>3</format>
  <var_count>3</var_count>
  <var_all>3</var_all>
  <cls_labels type_id="opencv-matrix">
    <rows>8</rows>
    <cols>1</cols>
    <dt>i</dt>
    <data>
      1 2 3 4 5 6 7 8</data></cls_labels>
  <count>
    <_ type_id="opencv-matrix">
      <rows>1</rows>
      <cols>3</cols>
      <dt>i</dt>
      <data>
        4 4 4</data></_>
    <_ type_id="opencv-matrix">
      <rows>1</rows>
      <cols>3</cols>
      <dt>i</dt>
      <data>
        8 8 8</data></_>
    <_ type_id="opencv-matrix">
      <rows>1</rows>
      <cols>3</cols>
      <dt>i</dt>
      <data>
        9 9 9</data></_>
    <_ type_id="opencv-matrix">
      <rows>1</rows>
      <cols>3</cols>
      <dt>i</dt>
      <data>
        8 8 8</data></_>
    <_ type_id="opencv-matrix">
      <rows>1</rows>
      <cols>3</cols>
      <dt>i</dt>
      <data>
        3 3 3</data></_>
    <_ type_id="opencv-matrix">
      <rows>1</rows>
      <cols>3</cols>
      <dt>i</dt>
      <data>
        3 3 3</data></_>
    <_ type_id="opencv-matrix">
      <rows>1</rows>
      <cols>3</cols>
      <dt>i</dt>
      <data>
        5 5 5</data></_>
    <_ type_id="opencv-matrix">
      <rows>1</rows>
      <cols>3</cols>
      <dt>i</dt>
      <data>
        3 3 3</data></_></count>
  <sum>
    <_ type_id="opencv-matrix">
      <rows>1</rows>
      <cols>3</cols>
      <dt>d</dt>
      <data>
        1.6528344726562500e+02 1.4105501365661621e+02
        1.3272027969360352e+02</data></_>
    <_ type_id="opencv-matrix">
      <rows>1</rows>
      <cols>3</cols>
      <dt>d</dt>
      <data>
        4.0281305313110352e+02 4.7049136734008789e+02
        5.0515150833129883e+02</data></_>
    <_ type_id="opencv-matrix">
      <rows>1</rows>
      <cols>3</cols>
      <dt>d</dt>
      <data>
        4.0938927841186523e+02 4.2464941787719727e+02
        6.0921537780761719e+02</data></_>
    <_ type_id="opencv-matrix">
      <rows>1</rows>
      <cols>3</cols>
      <dt>d</dt>
      <data>
        7.0779813385009766e+02 6.7829882049560547e+02
        5.8077762603759766e+02</data></_>
    <_ type_id="opencv-matrix">
      <rows>1</rows>
      <cols>3</cols>
      <dt>d</dt>
      <data>
        2.8350583076477051e+01 2.0799999713897705e+01
        2.1078787803649902e+01</data></_>
    <_ type_id="opencv-matrix">
      <rows>1</rows>
      <cols>3</cols>
      <dt>d</dt>
      <data>
        4.6929277038574219e+02 4.5104988098144531e+02
        3.6886807250976563e+02</data></_>
    <_ type_id="opencv-matrix">
      <rows>1</rows>
      <cols>3</cols>
      <dt>d</dt>
      <data>
        1.0281212234497070e+02 6.3449417114257813e+01
        5.6463870048522949e+01</data></_>
    <_ type_id="opencv-matrix">
      <rows>1</rows>
      <cols>3</cols>
      <dt>d</dt>
      <data>
        5.2009043884277344e+02 4.6443031311035156e+02
        3.2285221862792969e+02</data></_></sum>
  <productsum>
    <_ type_id="opencv-matrix">
      <rows>3</rows>
      <cols>3</cols>
      <dt>d</dt>
      <data>
        6.8861342819030688e+03 5.8821133202390120e+03
        5.5354745692721481e+03 5.8821133202390120e+03
        5.0267240658863484e+03 4.7304657941868973e+03
        5.5354745692721481e+03 4.7304657941868973e+03
        4.4517007588141350e+03</data></_>
    <_ type_id="opencv-matrix">
      <rows>3</rows>
      <cols>3</cols>
      <dt>d</dt>
      <data>
        2.0607002692989408e+04 2.4033805953440300e+04
        2.5739473381590753e+04 2.4033805953440300e+04
        2.8056872179796177e+04 3.0056923466478329e+04
        2.5739473381590753e+04 3.0056923466478329e+04
        3.2217417050793083e+04</data></_>
    <_ type_id="opencv-matrix">
      <rows>3</rows>
      <cols>3</cols>
      <dt>d</dt>
      <data>
        1.8955368574017615e+04 1.9656876361039031e+04
        2.8046602720784926e+04 1.9656876361039031e+04
        2.0387592082649862e+04 2.9095162594425958e+04
        2.8046602720784926e+04 2.9095162594425958e+04
        4.1624658655617706e+04</data></_>
    <_ type_id="opencv-matrix">
      <rows>3</rows>
      <cols>3</cols>
      <dt>d</dt>
      <data>
        6.3080947696424962e+04 6.0464489799421281e+04
        5.1708807521306153e+04 6.0464489799421281e+04
        5.7958391053436382e+04 4.9565137524483376e+04
        5.1708807521306153e+04 4.9565137524483376e+04
        4.2425310634107387e+04</data></_>
    <_ type_id="opencv-matrix">
      <rows>3</rows>
      <cols>3</cols>
      <dt>d</dt>
      <data>
        2.6883654095676411e+02 1.9643403578676316e+02
        1.9926003121473241e+02 1.9643403578676316e+02
        1.4423175875128004e+02 1.4613759159779966e+02
        1.9926003121473241e+02 1.4613759159779966e+02
        1.4810923676910261e+02</data></_>
    <_ type_id="opencv-matrix">
      <rows>3</rows>
      <cols>3</cols>
      <dt>d</dt>
      <data>
        7.3491264491750160e+04 7.0635617443563184e+04
        5.7784309329152224e+04 7.0635617443563184e+04
        6.7895241979169426e+04 5.5546463143944973e+04
        5.7784309329152224e+04 5.5546463143944973e+04
        4.5451166954653920e+04</data></_>
    <_ type_id="opencv-matrix">
      <rows>3</rows>
      <cols>3</cols>
      <dt>d</dt>
      <data>
        2.1172324106821980e+03 1.3068057628914976e+03
        1.1627263131331456e+03 1.3068057628914976e+03
        8.0675670152849489e+02 7.1758677849022661e+02
        1.1627263131331456e+03 7.1758677849022661e+02
        6.3861083365405921e+02</data></_>
    <_ type_id="opencv-matrix">
      <rows>3</rows>
      <cols>3</cols>
      <dt>d</dt>
      <data>
        9.0280435587760294e+04 8.0624547478165478e+04
        5.6097387252957560e+04 8.0624547478165478e+04
        7.2003821508615511e+04 5.0104329369911575e+04
        5.6097387252957560e+04 5.0104329369911575e+04
        3.4890549970068620e+04</data></_></productsum>
  <avg>
    <_ type_id="opencv-matrix">
      <rows>1</rows>
      <cols>3</cols>
      <dt>d</dt>
      <data>
        4.1320861816406250e+01 3.5263753414154053e+01
        3.3180069923400879e+01</data></_>
    <_ type_id="opencv-matrix">
      <rows>1</rows>
      <cols>3</cols>
      <dt>d</dt>
      <data>
        5.0351631641387939e+01 5.8811420917510986e+01
        6.3143938541412354e+01</data></_>
    <_ type_id="opencv-matrix">
      <rows>1</rows>
      <cols>3</cols>
      <dt>d</dt>
      <data>
        4.5487697601318359e+01 4.7183268653021919e+01
        6.7690597534179688e+01</data></_>
    <_ type_id="opencv-matrix">
      <rows>1</rows>
      <cols>3</cols>
      <dt>d</dt>
      <data>
        8.8474766731262207e+01 8.4787352561950684e+01
        7.2597203254699707e+01</data></_>
    <_ type_id="opencv-matrix">
      <rows>1</rows>
      <cols>3</cols>
      <dt>d</dt>
      <data>
        9.4501943588256836e+00 6.9333332379659014e+00
        7.0262626012166338e+00</data></_>
    <_ type_id="opencv-matrix">
      <rows>1</rows>
      <cols>3</cols>
      <dt>d</dt>
      <data>
        1.5643092346191406e+02 1.5034996032714844e+02
        1.2295602416992188e+02</data></_>
    <_ type_id="opencv-matrix">
      <rows>1</rows>
      <cols>3</cols>
      <dt>d</dt>
      <data>
        2.0562424468994141e+01 1.2689883422851562e+01
        1.1292774009704591e+01</data></_>
    <_ type_id="opencv-matrix">
      <rows>1</rows>
      <cols>3</cols>
      <dt>d</dt>
      <data>
        1.7336347961425781e+02 1.5481010437011719e+02
        1.0761740620930989e+02</data></_></avg>
  <inv_eigen_values>
    <_ type_id="opencv-matrix">
      <rows>3</rows>
      <cols>1</cols>
      <dt>d</dt>
      <data>
        1.9231844720097441e-02 2.7017921277663670e+00
        5.3653061343512491e+02</data></_>
    <_ type_id="opencv-matrix">
      <rows>3</rows>
      <cols>1</cols>
      <dt>d</dt>
      <data>
        6.9271611372004674e-03 3.6674151637236696e-01
        3.7356553996841990e+00</data></_>
    <_ type_id="opencv-matrix">
      <rows>3</rows>
      <cols>1</cols>
      <dt>d</dt>
      <data>
        7.6815099110279592e-03 2.8118861860182948e-01
        7.7629880714738961e+00</data></_>
    <_ type_id="opencv-matrix">
      <rows>3</rows>
      <cols>1</cols>
      <dt>d</dt>
      <data>
        6.1242858769399817e-03 2.8337881265480852e-01
        1.0149683992619426e+01</data></_>
    <_ type_id="opencv-matrix">
      <rows>3</rows>
      <cols>1</cols>
      <dt>d</dt>
      <data>
        2.1264462933890065e+00 3.8391275773764843e+04 8388608.</data></_>
    <_ type_id="opencv-matrix">
      <rows>3</rows>
      <cols>1</cols>
      <dt>d</dt>
      <data>
        7.9929054271951298e-03 3.5293736918009444e-01 8388608.</data></_>
    <_ type_id="opencv-matrix">
      <rows>3</rows>
      <cols>1</cols>
      <dt>d</dt>
      <data>
        7.2348428757819672e-01 2.1405706199996292e+01
        2.1799682242404697e+02</data></_>
    <_ type_id="opencv-matrix">
      <rows>3</rows>
      <cols>1</cols>
      <dt>d</dt>
      <data>
        5.4990905458384576e-03 5.8844837216354129e-01 8388608.</data></_></inv_eigen_values>
  <cov_rotate_mats>
    <_ type_id="opencv-matrix">
      <rows>3</rows>
      <cols>3</cols>
      <dt>d</dt>
      <data>
        5.9793055070081280e-01 5.7922529616286600e-01
        5.5405515323265675e-01 -7.9943147704231032e-01
        4.8114204702553753e-01 3.5973829945951746e-01
        -5.8209707545843530e-02 -6.5802764901568955e-01
        7.5074046319504562e-01</data></_>
    <_ type_id="opencv-matrix">
      <rows>3</rows>
      <cols>3</cols>
      <dt>d</dt>
      <data>
        5.5627714711249598e-01 6.1714703704764506e-01
        5.5649372886286419e-01 -7.8902242095645636e-01
        1.8211427506703787e-01 5.8675208567573067e-01
        2.6076685914508990e-01 -7.6548280547646508e-01
        5.8824885864018894e-01</data></_>
    <_ type_id="opencv-matrix">
      <rows>3</rows>
      <cols>3</cols>
      <dt>d</dt>
      <data>
        5.5895246752451744e-01 5.7773855200035840e-01
        5.9480274426130741e-01 -5.0894847130060050e-01
        -3.2727219634302301e-01 7.9615599166344009e-01
        6.5463241029530084e-01 -7.4773730349190348e-01
        1.1110955115390383e-01</data></_>
    <_ type_id="opencv-matrix">
      <rows>3</rows>
      <cols>3</cols>
      <dt>d</dt>
      <data>
        6.3098340663165842e-01 6.2384882635547456e-01
        4.6116437677947775e-01 -3.6434469880299830e-01
        -2.8651157969730678e-01 8.8609483417606394e-01
        6.8491815643159859e-01 -7.2713393302351848e-01
        4.6511960140264832e-02</data></_>
    <_ type_id="opencv-matrix">
      <rows>3</rows>
      <cols>3</cols>
      <dt>d</dt>
      <data>
        9.8795789398794542e-01 -1.3990929563442869e-01
        6.6065033883149826e-02 3.1508249677193609e-02
        5.9996973900235417e-01 7.9940199054275995e-01
        -1.5148079056165284e-01 -7.8769391344387407e-01
        5.9715313682027293e-01</data></_>
    <_ type_id="opencv-matrix">
      <rows>3</rows>
      <cols>3</cols>
      <dt>d</dt>
      <data>
        5.5078215288382071e-01 5.6495899238722636e-01
        6.1437802449751844e-01 -7.8088723115654868e-01
        8.8890561583469280e-02 6.1831513023541185e-01
        2.9471028533344784e-01 -8.2031689302499777e-01
        4.9012859816224963e-01</data></_>
    <_ type_id="opencv-matrix">
      <rows>3</rows>
      <cols>3</cols>
      <dt>d</dt>
      <data>
        7.5513450529385084e-01 5.1776784841502210e-01
        4.0210487943108802e-01 -1.7813395999139228e-01
        7.5234627149302424e-01 -6.3422659993753783e-01
        -6.3090424884636520e-01 4.0729785528311274e-01
        6.6035466672794885e-01</data></_>
    <_ type_id="opencv-matrix">
      <rows>3</rows>
      <cols>3</cols>
      <dt>d</dt>
      <data>
        5.5920509923935358e-01 5.3809203199227462e-01
        6.3067156435908012e-01 -7.7011609105129275e-01
        5.5513523369054851e-02 6.3548363867768498e-01
        3.0693788180767378e-01 -8.4105601111315897e-01
        4.4543677764845624e-01</data></_></cov_rotate_mats>
  <c type_id="opencv-matrix">
    <rows>1</rows>
    <cols>8</cols>
    <dt>d</dt>
    <data>
      -3.3278511309811267e+00 4.6574799138158136e+00
      4.0883014215664355e+00 4.0390212653924271e+00
      -2.7252422851771691e+01 -1.0071719538307510e+01
      -8.1244615676058256e+00 -1.0208946513185669e+01</data></c></opencv_ml_nbayes>
</opencv_storage>
