<?xml version="1.0"?>
<opencv_storage>
<opencv_ml_svm>
  <format>3</format>
  <svmType>C_SVC</svmType>
  <kernel>
    <type>LINEAR</type></kernel>
  <C>1.</C>
  <term_criteria><epsilon>1.0000000000000001e-05</epsilon>
    <iterations>100</iterations></term_criteria>
  <var_count>3</var_count>
  <class_count>4</class_count>
  <class_labels type_id="opencv-matrix">
    <rows>4</rows>
    <cols>1</cols>
    <dt>i</dt>
    <data>
      1 2 3 4</data></class_labels>
  <sv_total>6</sv_total>
  <support_vectors>
    <_>
      -5.85073722e-04 4.05621622e-03 5.58519782e-03</_>
    <_>
      1.27750600e-03 3.94836674e-03 5.43147093e-03</_>
    <_>
      -1.36536593e-02 -3.09955096e-03 3.42189218e-03</_>
    <_>
      2.52943356e-02 -1.02369740e-05 -8.56280167e-05</_>
    <_>
      -2.31929892e-03 -4.42391261e-03 -4.43372875e-03</_>
    <_>
      -3.26720136e-03 -3.48581839e-03 -3.49321123e-03</_></support_vectors>
  <uncompressed_sv_total>8</uncompressed_sv_total>
  <uncompressed_support_vectors>
    <_>
      5.47504997e+01 1.69045502e+02 2.32766830e+02</_>
    <_>
      5.51800003e+01 1.70285660e+02 2.33274826e+02</_>
    <_>
      1.33333332e-03 3.50000011e-03 4.99999989e-03</_>
    <_>
      7.91338348e+01 0. 0.</_>
    <_>
      8.57403336e+01 0. 0.</_>
    <_>
      1.86986664e+02 1.99495331e+02 1.99951004e+02</_>
    <_>
      1.86663330e+02 1.99153671e+02 1.99581665e+02</_>
    <_>
      6.56666681e-02 3.20000015e-02 2.67666668e-01</_></uncompressed_support_vectors>
  <decision_functions>
    <_>
      <sv_count>1</sv_count>
      <rho>9.5370087857590746e-01</rho>
      <alpha>
        1.</alpha>
      <index>
        0</index></_>
    <_>
      <sv_count>1</sv_count>
      <rho>1.0016640610756884e+00</rho>
      <alpha>
        1.</alpha>
      <index>
        1</index></_>
    <_>
      <sv_count>1</sv_count>
      <rho>-1.4820370838517800e+00</rho>
      <alpha>
        1.</alpha>
      <index>
        2</index></_>
    <_>
      <sv_count>1</sv_count>
      <rho>1.0016377474965914e+00</rho>
      <alpha>
        1.</alpha>
      <index>
        3</index></_>
    <_>
      <sv_count>1</sv_count>
      <rho>-1.1960015778618838e+00</rho>
      <alpha>
        1.</alpha>
      <index>
        4</index></_>
    <_>
      <sv_count>1</sv_count>
      <rho>-1.0018386968717339e+00</rho>
      <alpha>
        1.</alpha>
      <index>
        5</index></_></decision_functions></opencv_ml_svm>
</opencv_storage>
